<?xml version="1.0" encoding="UTF-8"?>
<!-- This network was created in GeNIe Academic, which can be used for academic teaching and research purposes only -->
<smile version="1.0" id="Network2" numsamples="10000" discsamples="10000">
	<nodes>
		<cpt id="Value_of_Built_Asset">
			<state id="High" />
			<state id="Low" />
			<probabilities>0.9523384693072061 0.04766153069279378</probabilities>
		</cpt>
		<cpt id="Total_Rainfall">
			<state id="High" />
			<state id="Low" />
			<probabilities>0.8894533745532759 0.110546625446724</probabilities>
		</cpt>
		<cpt id="Proximity_to_Nearest_Body_of_Water">
			<state id="High" />
			<state id="Low" />
			<probabilities>0.6274833571456526 0.3725166428543474</probabilities>
		</cpt>
		<cpt id="Elevation">
			<state id="High" />
			<state id="Low" />
			<probabilities>0.6343966031213522 0.3656033968786479</probabilities>
		</cpt>
		<cpt id="Household_Income">
			<state id="High" />
			<state id="Low" />
			<parents>Proximity_to_Nearest_Body_of_Water Elevation</parents>
			<probabilities>0.9792150167499846 0.0207849832500154 0.02083308936490959 0.9791669106350904 0.02083308936490959 0.9791669106350904 0.0004251650890797875 0.9995748349109201</probabilities>
		</cpt>
		<cpt id="Building_Tax">
			<state id="High" />
			<state id="Low" />
			<parents>Household_Income</parents>
			<probabilities>0.9804622671724014 0.01953773282759864 0.0701871212426529 0.9298128787573471</probabilities>
		</cpt>
		<cpt id="Rebuild_Cost">
			<state id="High" />
			<state id="Low" />
			<probabilities>0.3648999529821068 0.6351000470178931</probabilities>
		</cpt>
		<cpt id="Professional_Fee">
			<state id="High" />
			<state id="Low" />
			<parents>Rebuild_Cost Household_Income Building_Tax Elevation</parents>
			<probabilities>0.6948466884973352 0.3051533115026647 0.2645007564433338 0.7354992435566663 0.2645007564433338 0.7354992435566663 0.2645007564433338 0.7354992435566663 0.2645007564433338 0.7354992435566663 0.2645007564433338 0.7354992435566662 0.2645007564433338 0.7354992435566663 0.2645007564433337 0.7354992435566662 0.2645007564433337 0.7354992435566663 0.2645007564433338 0.7354992435566663 0.2645007564433338 0.7354992435566663 0.2645007564433338 0.7354992435566663 0.2645007564433338 0.7354992435566663 0.2645007564433338 0.7354992435566662 0.2645007564433338 0.7354992435566662 0.2645007564433337 0.7354992435566662</probabilities>
		</cpt>
		<cpt id="Insurance_Cover">
			<state id="High" />
			<state id="Low" />
			<parents>Rebuild_Cost Value_of_Built_Asset Proximity_to_Nearest_Body_of_Water</parents>
			<probabilities>0.1741179609118852 0.8258820390881149 0.4654849356852608 0.5345150643147392 0.4654849356852608 0.5345150643147392 0.4654849356852608 0.5345150643147392 0.4654849356852611 0.5345150643147389 0.4654849356852609 0.5345150643147389 0.4654849356852608 0.5345150643147392 0.4654849356852608 0.5345150643147392</probabilities>
		</cpt>
		<cpt id="Rapidity">
			<state id="High" />
			<state id="Medium" />
			<state id="Low" />
			<parents>Insurance_Cover Rebuild_Cost Professional_Fee Household_Income</parents>
			<probabilities>0.4225991203895462 0.2637300807002377 0.3136707989102162 0.336225323295381 0.3888505008124853 0.2749241758921337 0.2500000000000001 0.2099999999999996 0.5400000000000004 0.2499999999999998 0.2099999999999996 0.5400000000000006 0.2500000000000002 0.21 0.5399999999999998 0.2500000000000002 0.21 0.5399999999999999 0.2499999999999992 0.2099999999999994 0.5400000000000014 0.2499999999999996 0.2099999999999995 0.5400000000000008 0.2499999999999998 0.2099999999999996 0.5400000000000005 0.2500000000000002 0.21 0.5399999999999997 0.2499999999999995 0.2099999999999999 0.5400000000000006 0.2499999999999994 0.2099999999999999 0.5400000000000006 0.2500000000000002 0.2100000000000002 0.5399999999999996 0.2500000000000002 0.2100000000000001 0.5399999999999996 0.25 0.2099999999999993 0.5400000000000007 0.2499999999999999 0.2099999999999996 0.5400000000000005</probabilities>
		</cpt>
		<cpt id="Redundancy">
			<state id="High" />
			<state id="Medium" />
			<state id="Low" />
			<parents>Building_Tax Value_of_Built_Asset</parents>
			<probabilities>0.4589423961452763 0.1316720126235106 0.4093855912312129 0.11626168 0.13373832 0.75 0.4187569833878265 0.1803597959243169 0.4008832206878566 0.1162616800000003 0.1337383200000002 0.7499999999999996</probabilities>
		</cpt>
		<cpt id="Flood_Depth">
			<state id="High" />
			<state id="Low" />
			<parents>Total_Rainfall</parents>
			<probabilities>0.4059432623724698 0.5940567376275303 0.1400668124780026 0.8599331875219974</probabilities>
		</cpt>
		<cpt id="Robustness">
			<state id="High" />
			<state id="Medium" />
			<state id="Low" />
			<parents>Building_Tax Elevation Total_Rainfall Flood_Depth</parents>
			<probabilities>0.09359020415495543 0.7826106344632257 0.1237991613818191 0.4600894067581436 0.2661940111748844 0.2737165820669719 0.09537565370735877 0.4999069898440331 0.4047173564486081 0.1537528290000001 0.146247171 0.7 0.09537565370735877 0.4999069898440331 0.4047173564486082 0.1537528290000003 0.1462471709999998 0.7 0.09537565370735879 0.4999069898440331 0.4047173564486081 0.1537528289999999 0.1462471709999998 0.7000000000000003 0.09537565370735877 0.4999069898440331 0.4047173564486081 0.1537528289999999 0.1462471709999999 0.7000000000000002 0.09537565370735877 0.4999069898440331 0.4047173564486081 0.1537528290000001 0.146247171 0.6999999999999997 0.09537565370735875 0.499906989844033 0.4047173564486082 0.1537528290000001 0.146247171 0.7 0.09537565370735877 0.4999069898440331 0.4047173564486081 0.1537528290000001 0.1462471710000001 0.6999999999999998</probabilities>
		</cpt>
		<cpt id="Resourcefulness">
			<state id="High" />
			<state id="Medium" />
			<state id="Low" />
			<parents>Proximity_to_Nearest_Body_of_Water Household_Income</parents>
			<probabilities>0.4117157207909596 0.3071509741283698 0.2811333050806705 0.10850709860096 0.6584630015884151 0.2330298998106249 0.03700775828590588 0.5691449594161996 0.3938472822978946 0.10850709860096 0.6584630015884152 0.2330298998106248</probabilities>
		</cpt>
		<cpt id="Built_Assets_Flood_Resilience">
			<state id="High" />
			<state id="Medium" />
			<state id="Low" />
			<parents>Rapidity Redundancy Robustness Resourcefulness</parents>
			<probabilities>0.5537605676329754 0.008386885442005112 0.4378525469250195 0.2333333332333333 0.3333333333333331 0.4333333334333336 0.1363505761895362 0.1678160938104636 0.6958333300000001 0.6706214835492958 0.06624601576866265 0.2631325006820415 0.2333333332333333 0.333333333333333 0.4333333334333337 0.1363505761895361 0.1678160938104639 0.6958333300000001 0.6706214835492957 0.06624601576866267 0.2631325006820416 0.2333333332333334 0.333333333333333 0.4333333334333337 0.1363505761895364 0.1678160938104636 0.69583333 0.670621483549296 0.06624601576866267 0.2631325006820415 0.2333333332333335 0.3333333333333334 0.433333333433333 0.1363505761895363 0.1678160938104638 0.6958333299999998 0.6706214835492958 0.06624601576866268 0.2631325006820416 0.2333333332333335 0.3333333333333331 0.4333333334333334 0.1363505761895361 0.1678160938104636 0.6958333300000002 0.6706214835492958 0.06624601576866268 0.2631325006820415 0.233333333233333 0.3333333333333332 0.4333333334333338 0.1363505761895363 0.1678160938104638 0.6958333299999998 0.6706214835492956 0.06624601576866268 0.2631325006820416 0.2333333332333333 0.3333333333333334 0.4333333334333334 0.1363505761895362 0.1678160938104637 0.6958333300000001 0.6706214835492958 0.06624601576866268 0.2631325006820416 0.2333333332333335 0.3333333333333336 0.433333333433333 0.1363505761895362 0.1678160938104636 0.6958333300000004 0.6706214835492958 0.06624601576866268 0.2631325006820415 0.2333333332333334 0.3333333333333339 0.4333333334333328 0.1363505761895362 0.1678160938104637 0.69583333 0.6706214835492957 0.06624601576866267 0.2631325006820416 0.2333333332333334 0.3333333333333333 0.4333333334333333 0.1363505761895361 0.1678160938104636 0.6958333300000004 0.6706214835492957 0.06624601576866265 0.2631325006820415 0.2333333332333334 0.3333333333333329 0.4333333334333336 0.1363505761895362 0.1678160938104638 0.6958333299999999 0.6706214835492958 0.06624601576866265 0.2631325006820415 0.2333333332333334 0.3333333333333335 0.4333333334333331 0.1363505761895362 0.1678160938104636 0.6958333300000001 0.6706214835492958 0.06624601576866268 0.2631325006820415 0.2333333332333335 0.3333333333333334 0.4333333334333332 0.1363505761895361 0.1678160938104637 0.6958333300000001 0.6706214835492957 0.06624601576866267 0.2631325006820415 0.2333333332333334 0.3333333333333331 0.4333333334333334 0.1363505761895362 0.1678160938104637 0.6958333300000001 0.6706214835492956 0.06624601576866267 0.2631325006820415 0.2333333332333333 0.3333333333333333 0.4333333334333335 0.1363505761895364 0.1678160938104639 0.6958333299999997 0.6706214835492958 0.06624601576866267 0.2631325006820415 0.2333333332333334 0.3333333333333329 0.4333333334333336 0.1363505761895363 0.1678160938104639 0.6958333299999999 0.6706214835492958 0.06624601576866267 0.2631325006820415 0.2333333332333334 0.3333333333333335 0.4333333334333331 0.1363505761895362 0.1678160938104639 0.6958333299999999 0.6706214835492958 0.06624601576866267 0.2631325006820415 0.2333333332333333 0.3333333333333333 0.4333333334333334 0.1363505761895363 0.167816093810464 0.6958333299999997 0.670621483549296 0.06624601576866265 0.2631325006820415 0.2333333332333331 0.3333333333333337 0.4333333334333331 0.1363505761895362 0.1678160938104638 0.69583333 0.6706214835492957 0.06624601576866269 0.2631325006820416 0.2333333332333337 0.3333333333333335 0.4333333334333328 0.1363505761895362 0.1678160938104639 0.6958333299999999 0.6706214835492957 0.06624601576866271 0.2631325006820417 0.2333333332333336 0.3333333333333326 0.4333333334333337 0.1363505761895363 0.1678160938104638 0.6958333299999999 0.6706214835492958 0.06624601576866271 0.2631325006820416 0.233333333233333 0.333333333333333 0.4333333334333339 0.1363505761895362 0.1678160938104639 0.69583333 0.6706214835492957 0.06624601576866267 0.2631325006820416 0.2333333332333336 0.333333333333333 0.4333333334333335 0.1363505761895364 0.1678160938104636 0.6958333299999999 0.6706214835492958 0.06624601576866269 0.2631325006820415 0.2333333332333337 0.333333333333333 0.4333333334333332 0.1363505761895363 0.1678160938104634 0.6958333300000001 0.6706214835492957 0.06624601576866274 0.2631325006820415 0.2333333332333332 0.3333333333333341 0.4333333334333326 0.1363505761895361 0.1678160938104637 0.6958333300000001 0.670621483549296 0.06624601576866268 0.2631325006820416 0.2333333332333337 0.3333333333333328 0.4333333334333335 0.1363505761895362 0.1678160938104639 0.6958333299999999 0.6706214835492957 0.06624601576866265 0.2631325006820416 0.2333333332333328 0.3333333333333331 0.4333333334333341 0.1363505761895365 0.167816093810464 0.6958333299999996</probabilities>
		</cpt>
	</nodes>
	<cases>
		<case name="Case0001">
			<evidence node="Household_Income" state="High" />
			<evidence node="Value_of_Built_Asset" state="Low" />
		</case>
		<case name="Case0002">
			<evidence node="Household_Income" state="High" />
			<evidence node="Value_of_Built_Asset" state="Low" />
		</case>
		<case name="Case0003">
			<evidence node="Household_Income" state="High" />
			<evidence node="Value_of_Built_Asset" state="Low" />
		</case>
		<case name="Case0004">
			<evidence node="Household_Income" state="High" />
			<evidence node="Value_of_Built_Asset" state="Low" />
		</case>
		<case name="Case0005">
			<evidence node="Household_Income" state="High" />
			<evidence node="Value_of_Built_Asset" state="Low" />
		</case>
		<case name="Case0006">
			<evidence node="Household_Income" state="High" />
			<evidence node="Value_of_Built_Asset" state="Low" />
		</case>
		<case name="Case0007">
			<evidence node="Household_Income" state="High" />
			<evidence node="Value_of_Built_Asset" state="Low" />
		</case>
		<case name="Case0008">
			<evidence node="Household_Income" state="High" />
			<evidence node="Value_of_Built_Asset" state="Low" />
		</case>
		<case name="Case0009">
			<evidence node="Household_Income" state="High" />
			<evidence node="Value_of_Built_Asset" state="Low" />
		</case>
		<case name="Case0010">
			<evidence node="Household_Income" state="High" />
			<evidence node="Value_of_Built_Asset" state="Low" />
		</case>
		<case name="Case0011">
			<evidence node="Household_Income" state="High" />
			<evidence node="Value_of_Built_Asset" state="Low" />
		</case>
		<case name="Case0012">
			<evidence node="Household_Income" state="High" />
			<evidence node="Value_of_Built_Asset" state="Low" />
		</case>
		<case name="Case0013">
			<evidence node="Household_Income" state="High" />
			<evidence node="Value_of_Built_Asset" state="Low" />
		</case>
		<case name="Case0014">
			<evidence node="Household_Income" state="High" />
			<evidence node="Value_of_Built_Asset" state="Low" />
		</case>
		<case name="Case0015">
			<evidence node="Household_Income" state="Low" />
			<evidence node="Value_of_Built_Asset" state="Low" />
		</case>
		<case name="Case0016">
			<evidence node="Household_Income" state="High" />
			<evidence node="Value_of_Built_Asset" state="High" />
		</case>
		<case name="Case0017">
			<evidence node="Household_Income" state="High" />
			<evidence node="Value_of_Built_Asset" state="Low" />
		</case>
		<case name="Case0018">
			<evidence node="Household_Income" state="High" />
			<evidence node="Value_of_Built_Asset" state="Low" />
		</case>
		<case name="Case0019">
			<evidence node="Household_Income" state="High" />
			<evidence node="Value_of_Built_Asset" state="Low" />
		</case>
		<case name="Case0020">
			<evidence node="Household_Income" state="High" />
			<evidence node="Value_of_Built_Asset" state="Low" />
		</case>
		<case name="Case0021">
			<evidence node="Household_Income" state="High" />
			<evidence node="Value_of_Built_Asset" state="Low" />
		</case>
		<case name="Case0022">
			<evidence node="Household_Income" state="High" />
			<evidence node="Value_of_Built_Asset" state="Low" />
		</case>
		<case name="Case0023">
			<evidence node="Household_Income" state="High" />
			<evidence node="Value_of_Built_Asset" state="Low" />
		</case>
		<case name="Case0024">
			<evidence node="Household_Income" state="High" />
			<evidence node="Value_of_Built_Asset" state="Low" />
		</case>
		<case name="Case0025">
			<evidence node="Household_Income" state="High" />
			<evidence node="Value_of_Built_Asset" state="Low" />
		</case>
		<case name="Case0026">
			<evidence node="Household_Income" state="High" />
			<evidence node="Value_of_Built_Asset" state="Low" />
		</case>
		<case name="Case0027">
			<evidence node="Household_Income" state="High" />
			<evidence node="Value_of_Built_Asset" state="Low" />
		</case>
		<case name="Case0028">
			<evidence node="Household_Income" state="High" />
			<evidence node="Value_of_Built_Asset" state="Low" />
		</case>
		<case name="Case0029">
			<evidence node="Household_Income" state="High" />
			<evidence node="Value_of_Built_Asset" state="Low" />
		</case>
		<case name="Case0030">
			<evidence node="Household_Income" state="High" />
			<evidence node="Value_of_Built_Asset" state="Low" />
		</case>
		<case name="Case0031">
			<evidence node="Household_Income" state="High" />
			<evidence node="Value_of_Built_Asset" state="Low" />
		</case>
		<case name="Case0032">
			<evidence node="Household_Income" state="High" />
			<evidence node="Value_of_Built_Asset" state="Low" />
		</case>
		<case name="Case0033">
			<evidence node="Household_Income" state="High" />
			<evidence node="Value_of_Built_Asset" state="Low" />
		</case>
		<case name="Case0034">
			<evidence node="Household_Income" state="High" />
			<evidence node="Value_of_Built_Asset" state="Low" />
		</case>
		<case name="Case0035">
			<evidence node="Household_Income" state="High" />
			<evidence node="Value_of_Built_Asset" state="Low" />
		</case>
		<case name="Case0036">
			<evidence node="Household_Income" state="High" />
			<evidence node="Value_of_Built_Asset" state="Low" />
		</case>
		<case name="Case0037">
			<evidence node="Household_Income" state="High" />
			<evidence node="Value_of_Built_Asset" state="Low" />
		</case>
		<case name="Case0038">
			<evidence node="Household_Income" state="High" />
			<evidence node="Value_of_Built_Asset" state="Low" />
		</case>
		<case name="Case0039">
			<evidence node="Household_Income" state="High" />
			<evidence node="Value_of_Built_Asset" state="Low" />
		</case>
		<case name="Case0040">
			<evidence node="Household_Income" state="High" />
			<evidence node="Value_of_Built_Asset" state="Low" />
		</case>
		<case name="Case0041">
			<evidence node="Household_Income" state="High" />
			<evidence node="Value_of_Built_Asset" state="Low" />
		</case>
		<case name="Case0042">
			<evidence node="Household_Income" state="High" />
			<evidence node="Value_of_Built_Asset" state="Low" />
		</case>
	</cases>
	<extensions>
		<genie version="1.0" app="GeNIe 4.1.3724.0 ACADEMIC" name="Network2">
			<node id="Rapidity">
				<name>Rapidity</name>
				<interior color="faf59e" />
				<outline color="000080" />
				<font color="000000" name="Arial" size="8" />
				<position>253 143 342 186</position>
				<barchart active="true" width="128" height="72" />
			</node>
			<node id="Redundancy">
				<name>Redundancy</name>
				<interior color="fac074" />
				<outline color="000080" />
				<font color="000000" name="Arial" size="8" />
				<position>470 153 547 198</position>
				<barchart active="true" width="128" height="72" />
			</node>
			<node id="Robustness">
				<name>Robustness</name>
				<interior color="d7f0a8" />
				<outline color="000080" />
				<font color="000000" name="Arial" size="8" />
				<position>760 167 831 211</position>
				<barchart active="true" width="128" height="72" />
			</node>
			<node id="Resourcefulness">
				<name>Resourcefulness</name>
				<interior color="339966" />
				<outline color="000080" />
				<font color="000000" name="Arial" size="8" />
				<position>915 149 1022 197</position>
				<barchart active="true" width="128" height="64" />
			</node>
			<node id="Insurance_Cover">
				<name>Insurance Cover</name>
				<interior color="e5f6f7" />
				<outline color="000080" />
				<font color="000000" name="Arial" size="8" />
				<position>399 250 490 306</position>
				<barchart active="true" width="128" height="64" />
			</node>
			<node id="Rebuild_Cost">
				<name>Rebuild Cost</name>
				<interior color="e5f6f7" />
				<outline color="000080" />
				<font color="000000" name="Arial" size="8" />
				<position>364 394 437 439</position>
				<barchart active="true" width="128" height="64" />
			</node>
			<node id="Building_Tax">
				<name>Building Tax</name>
				<interior color="e5f6f7" />
				<outline color="000080" />
				<font color="000000" name="Arial" size="8" />
				<position>508 344 605 378</position>
				<barchart active="true" width="128" height="64" />
			</node>
			<node id="Value_of_Built_Asset">
				<name>Value of Built Asset</name>
				<interior color="e5f6f7" />
				<outline color="000080" />
				<font color="000000" name="Arial" size="8" />
				<position>608 234 696 266</position>
				<barchart active="true" width="128" height="64" />
			</node>
			<node id="Elevation">
				<name>Elevation</name>
				<interior color="e5f6f7" />
				<outline color="000080" />
				<font color="000000" name="Arial" size="8" />
				<position>898 428 980 473</position>
				<barchart active="true" width="128" height="64" />
			</node>
			<node id="Total_Rainfall">
				<name>Total Rainfall</name>
				<interior color="e5f6f7" />
				<outline color="000080" />
				<font color="000000" name="Arial" size="8" />
				<position>510 456 583 501</position>
				<barchart active="true" width="128" height="64" />
			</node>
			<node id="Proximity_to_Nearest_Body_of_Water">
				<name>Proximity to Nearest Body of Water</name>
				<interior color="e5f6f7" />
				<outline color="000080" />
				<font color="000000" name="Arial" size="8" />
				<position>914 280 994 330</position>
				<barchart active="true" width="128" height="64" />
			</node>
			<node id="Household_Income">
				<name>Household Income</name>
				<interior color="e5f6f7" />
				<outline color="000080" />
				<font color="000000" name="Arial" size="8" />
				<position>728 324 799 368</position>
				<barchart active="true" width="128" height="64" />
			</node>
			<node id="Professional_Fee">
				<name>Professional Fee</name>
				<interior color="e5f6f7" />
				<outline color="000080" />
				<font color="000000" name="Arial" size="8" />
				<position>228 273 319 329</position>
				<barchart active="true" width="128" height="64" />
			</node>
			<node id="Built_Assets_Flood_Resilience">
				<name>Built Assets Flood Resilience</name>
				<interior color="ff9900" />
				<outline color="000080" />
				<font color="000000" name="Arial" size="8" />
				<position>554 29 742 90</position>
				<barchart active="true" width="128" height="72" />
			</node>
			<node id="Flood_Depth">
				<name>Flood Depth</name>
				<interior color="e5f6f7" />
				<outline color="000080" />
				<font color="000000" name="Arial" size="8" />
				<position>721 452 769 482</position>
				<barchart active="true" width="128" height="64" />
			</node>
		</genie>
	</extensions>
</smile>
