<?xml version="1.0" encoding="UTF-8"?>
<!-- This network was created in GeNIe Academic, which can be used for academic teaching and research purposes only -->
<smile version="1.0" id="Network2" numsamples="10000" discsamples="10000">
	<nodes>
		<cpt id="Building_Floor_Space">
			<state id="High" />
			<state id="Low" />
			<probabilities>0.6707013219999999 0.329298678</probabilities>
		</cpt>
		<cpt id="Total_Rainfall">
			<state id="High" />
			<state id="Low" />
			<probabilities>0.5465681475505948 0.4534318524494052</probabilities>
		</cpt>
		<cpt id="Recorded_Precipitation">
			<state id="High" />
			<state id="Low" />
			<probabilities>0.430561379 0.569438621</probabilities>
		</cpt>
		<cpt id="Proximity_to_Body_of_Water">
			<state id="High" />
			<state id="Low" />
			<parents>Total_Rainfall Recorded_Precipitation</parents>
			<probabilities>0.6261276688239756 0.3738723311760243 0.7431155244983721 0.2568844755016279 0.2208268974227148 0.7791731025772851 0.9052197367218633 0.09478026327813678</probabilities>
		</cpt>
		<cpt id="Wall_Thickness">
			<state id="High" />
			<state id="Low" />
			<parents>Proximity_to_Body_of_Water</parents>
			<probabilities>0.3732032160935144 0.6267967839064855 0.5 0.5</probabilities>
		</cpt>
		<cpt id="Building_Height">
			<state id="High" />
			<state id="Low" />
			<probabilities>0.8937583401266053 0.1062416598733948</probabilities>
		</cpt>
		<cpt id="Rebuild_Cost">
			<state id="High" />
			<state id="Low" />
			<parents>Building_Floor_Space Proximity_to_Body_of_Water</parents>
			<probabilities>0.6730805625496755 0.3269194374503245 0.2746055096171986 0.7253944903828015 0.2746055096171984 0.7253944903828017 0.2746055096171992 0.7253944903828008</probabilities>
		</cpt>
		<cpt id="Household_Income">
			<state id="High" />
			<state id="Low" />
			<parents>Proximity_to_Body_of_Water</parents>
			<probabilities>0.1262277909429518 0.8737722090570481 0.9074689392043481 0.09253106079565183</probabilities>
		</cpt>
		<cpt id="Insurance_Cover">
			<state id="High" />
			<state id="Low" />
			<parents>Building_Floor_Space Building_Height Rebuild_Cost Total_Rainfall</parents>
			<probabilities>0.8473934840281793 0.1526065159718208 0.54543343343468 0.4545665665653201 0.5454334334346799 0.4545665665653201 0.5454334334346802 0.4545665665653199 0.5454334334346804 0.4545665665653196 0.5454334334346802 0.4545665665653198 0.5454334334346805 0.4545665665653195 0.5454334334346802 0.4545665665653198 0.5454334334346804 0.4545665665653195 0.5454334334346802 0.4545665665653197 0.5454334334346804 0.4545665665653195 0.5454334334346804 0.4545665665653196 0.5454334334346801 0.4545665665653199 0.5454334334346801 0.4545665665653198 0.5454334334346805 0.4545665665653195 0.54543343343468 0.45456656656532</probabilities>
		</cpt>
		<cpt id="Professional_Fee">
			<state id="High" />
			<state id="Low" />
			<parents>Building_Floor_Space</parents>
			<probabilities>0.69504063 0.30495937 0.7010984155842241 0.2989015844157759</probabilities>
		</cpt>
		<cpt id="Rapidity">
			<state id="High" />
			<state id="Medium" />
			<state id="Low" />
			<parents>Insurance_Cover Rebuild_Cost Professional_Fee Household_Income</parents>
			<probabilities>0.5622423056147516 0.4293941186912555 0.008363575693992896 0.263251766304373 0.3988164513852722 0.337931782310355 0.3333333333333333 0.3333333333333333 0.3333333333333333 0.3333333333333333 0.3333333333333333 0.3333333333333333 0.3333333333333334 0.3333333333333334 0.3333333333333334 0.3333333333333333 0.3333333333333333 0.3333333333333333 0.3333333333333334 0.3333333333333334 0.3333333333333334 0.3333333333333333 0.3333333333333333 0.3333333333333333 0.3333333333333334 0.3333333333333334 0.3333333333333334 0.3333333333333333 0.3333333333333333 0.3333333333333333 0.3333333333333333 0.3333333333333333 0.3333333333333333 0.3333333333333334 0.3333333333333334 0.3333333333333334 0.3333333333333333 0.3333333333333333 0.3333333333333333 0.3333333333333333 0.3333333333333334 0.3333333333333334 0.3333333333333333 0.3333333333333333 0.3333333333333333 0.3333333333333333 0.3333333333333334 0.3333333333333333</probabilities>
		</cpt>
		<cpt id="Redundancy">
			<state id="High" />
			<state id="Medium" />
			<state id="Low" />
			<parents>Building_Floor_Space Building_Height</parents>
			<probabilities>0.4441384641749676 0.2218196661751672 0.3340418696498653 0.3333333333333343 0.3333333333333328 0.3333333333333328 0.3333333333333333 0.3333333333333333 0.3333333333333333 0.3333333333333333 0.3333333333333333 0.3333333333333334</probabilities>
		</cpt>
		<cpt id="Robustness">
			<state id="High" />
			<state id="Medium" />
			<state id="Low" />
			<parents>Building_Height Proximity_to_Body_of_Water Total_Rainfall Wall_Thickness</parents>
			<probabilities>0.2794060265578951 0.3702720963196949 0.3503218771224101 0.3327881524557159 0.2406497915442841 0.426562056 0.3333333333333333 0.3333333333333333 0.3333333333333333 0.3327881524557159 0.2406497915442841 0.426562056 0.3333333333333334 0.3333333333333334 0.3333333333333334 0.3327881524557159 0.2406497915442841 0.426562056 0.3333333333333333 0.3333333333333333 0.3333333333333335 0.3327881524557159 0.2406497915442841 0.426562056 0.3333333333333334 0.3333333333333333 0.3333333333333333 0.3327881524557159 0.2406497915442841 0.426562056 0.3333333333333333 0.3333333333333333 0.3333333333333333 0.3327881524557159 0.2406497915442841 0.426562056 0.3333333333333334 0.3333333333333334 0.3333333333333334 0.3327881524557159 0.2406497915442841 0.426562056 0.3333333333333334 0.3333333333333333 0.3333333333333334 0.3327881524557159 0.2406497915442841 0.426562056</probabilities>
		</cpt>
		<cpt id="Resourcefulness">
			<state id="High" />
			<state id="Medium" />
			<state id="Low" />
			<parents>Household_Income Recorded_Precipitation</parents>
			<probabilities>0.4191302043477643 0.1354022188723722 0.4454675767798635 0.1032700644477297 0.124180718010498 0.7725492175417723 0.3333333333333333 0.3333333333333333 0.3333333333333333 0.3333333333333333 0.3333333333333333 0.3333333333333333</probabilities>
		</cpt>
		<cpt id="Node1">
			<state id="High" />
			<state id="Medium" />
			<state id="Low" />
			<parents>Rapidity Redundancy Robustness Resourcefulness</parents>
			<probabilities>0.2441005617115402 0.5075203951888986 0.2483790430995612 0.3333333333333334 0.3333333333333334 0.3333333333333334 0.3327881524557159 0.2406497915442841 0.426562056 0.3333333333333333 0.3333333333333333 0.3333333333333333 0.3333333333333333 0.3333333333333333 0.3333333333333333 0.3327881524557159 0.2406497915442841 0.426562056 0.3333333333333334 0.3333333333333334 0.3333333333333334 0.3333333333333333 0.3333333333333333 0.3333333333333333 0.3327881524557159 0.2406497915442841 0.426562056 0.3333333333333333 0.3333333333333333 0.3333333333333333 0.3333333333333334 0.3333333333333334 0.3333333333333334 0.3327881524557159 0.2406497915442841 0.426562056 0.3333333333333333 0.3333333333333333 0.3333333333333333 0.3333333333333334 0.3333333333333334 0.3333333333333334 0.3327881524557159 0.2406497915442841 0.426562056 0.3333333333333333 0.3333333333333333 0.3333333333333333 0.3333333333333334 0.3333333333333334 0.3333333333333334 0.3327881524557159 0.2406497915442841 0.426562056 0.3333333333333333 0.3333333333333333 0.3333333333333333 0.3333333333333334 0.3333333333333334 0.3333333333333334 0.3327881524557159 0.2406497915442841 0.426562056 0.3333333333333333 0.3333333333333333 0.3333333333333333 0.3333333333333333 0.3333333333333333 0.3333333333333333 0.3327881524557159 0.2406497915442841 0.426562056 0.3333333333333334 0.3333333333333334 0.3333333333333334 0.3333333333333333 0.3333333333333333 0.3333333333333333 0.3327881524557159 0.2406497915442841 0.426562056 0.3333333333333334 0.3333333333333334 0.3333333333333334 0.3333333333333334 0.3333333333333334 0.3333333333333334 0.3327881524557159 0.2406497915442841 0.426562056 0.3333333333333334 0.3333333333333334 0.3333333333333334 0.3333333333333334 0.3333333333333334 0.3333333333333334 0.3327881524557159 0.2406497915442841 0.426562056 0.3333333333333333 0.3333333333333333 0.3333333333333333 0.3333333333333333 0.3333333333333333 0.3333333333333333 0.3327881524557159 0.2406497915442841 0.426562056 0.3333333333333333 0.3333333333333333 0.3333333333333333 0.3333333333333333 0.3333333333333333 0.3333333333333333 0.3327881524557159 0.2406497915442841 0.426562056 0.3333333333333333 0.3333333333333333 0.3333333333333333 0.3333333333333334 0.3333333333333334 0.3333333333333334 0.3327881524557159 0.2406497915442841 0.426562056 0.3333333333333334 0.3333333333333334 0.3333333333333334 0.3333333333333333 0.3333333333333333 0.3333333333333333 0.3327881524557159 0.2406497915442841 0.426562056 0.3333333333333333 0.3333333333333333 0.3333333333333333 0.3333333333333333 0.3333333333333333 0.3333333333333333 0.3327881524557159 0.2406497915442841 0.426562056 0.3333333333333333 0.3333333333333333 0.3333333333333333 0.3333333333333333 0.3333333333333333 0.3333333333333333 0.3327881524557159 0.2406497915442841 0.426562056 0.3333333333333334 0.3333333333333334 0.3333333333333334 0.3333333333333333 0.3333333333333333 0.3333333333333333 0.3327881524557159 0.2406497915442841 0.426562056 0.3333333333333334 0.3333333333333334 0.3333333333333334 0.3333333333333334 0.3333333333333334 0.3333333333333334 0.3327881524557159 0.2406497915442841 0.426562056 0.3333333333333334 0.3333333333333334 0.3333333333333334 0.3333333333333334 0.3333333333333334 0.3333333333333334 0.3327881524557159 0.2406497915442841 0.426562056 0.3333333333333334 0.3333333333333334 0.3333333333333334 0.3333333333333334 0.3333333333333334 0.3333333333333334 0.3327881524557159 0.2406497915442841 0.426562056 0.3333333333333334 0.3333333333333334 0.3333333333333334 0.3333333333333334 0.3333333333333334 0.3333333333333334 0.3327881524557159 0.2406497915442841 0.426562056 0.3333333333333333 0.3333333333333333 0.3333333333333333 0.3333333333333334 0.3333333333333334 0.3333333333333334 0.3327881524557159 0.2406497915442841 0.426562056 0.3333333333333334 0.3333333333333334 0.3333333333333334 0.3333333333333333 0.3333333333333333 0.3333333333333333 0.3327881524557159 0.2406497915442841 0.426562056 0.3333333333333334 0.3333333333333334 0.3333333333333334 0.3333333333333333 0.3333333333333333 0.3333333333333333 0.3327881524557159 0.2406497915442841 0.426562056 0.3333333333333333 0.3333333333333333 0.3333333333333333 0.3333333333333333 0.3333333333333333 0.3333333333333333 0.3327881524557159 0.2406497915442841 0.426562056 0.3333333333333333 0.3333333333333333 0.3333333333333333 0.3333333333333333 0.3333333333333333 0.3333333333333333 0.3327881524557159 0.2406497915442841 0.426562056</probabilities>
		</cpt>
	</nodes>
	<cases>
		<case name="Case0001">
			<evidence node="Building_Height" state="High" />
		</case>
		<case name="Case0002">
			<evidence node="Building_Height" state="High" />
		</case>
		<case name="Case0003">
			<evidence node="Building_Height" state="High" />
		</case>
		<case name="Case0004">
			<evidence node="Building_Height" state="High" />
		</case>
		<case name="Case0005">
			<evidence node="Building_Height" state="High" />
		</case>
		<case name="Case0006">
			<evidence node="Building_Height" state="High" />
		</case>
		<case name="Case0007">
			<evidence node="Building_Height" state="High" />
		</case>
		<case name="Case0008">
			<evidence node="Building_Height" state="High" />
		</case>
		<case name="Case0009">
			<evidence node="Building_Height" state="High" />
		</case>
		<case name="Case0010">
			<evidence node="Building_Height" state="High" />
		</case>
		<case name="Case0011">
			<evidence node="Building_Height" state="High" />
		</case>
		<case name="Case0012">
			<evidence node="Building_Height" state="High" />
		</case>
		<case name="Case0013">
			<evidence node="Building_Height" state="High" />
		</case>
		<case name="Case0014">
			<evidence node="Building_Height" state="High" />
		</case>
		<case name="Case0015">
			<evidence node="Building_Height" state="High" />
		</case>
		<case name="Case0016">
			<evidence node="Building_Height" state="High" />
		</case>
		<case name="Case0017">
			<evidence node="Building_Height" state="High" />
		</case>
		<case name="Case0018">
			<evidence node="Building_Height" state="High" />
		</case>
		<case name="Case0019">
			<evidence node="Building_Height" state="High" />
		</case>
		<case name="Case0020">
			<evidence node="Building_Height" state="High" />
		</case>
		<case name="Case0021">
			<evidence node="Building_Height" state="High" />
		</case>
		<case name="Case0022">
			<evidence node="Building_Height" state="High" />
		</case>
		<case name="Case0023">
			<evidence node="Building_Height" state="High" />
		</case>
		<case name="Case0024">
			<evidence node="Building_Height" state="High" />
		</case>
		<case name="Case0025">
			<evidence node="Building_Height" state="High" />
		</case>
		<case name="Case0026">
			<evidence node="Building_Height" state="High" />
		</case>
		<case name="Case0027">
			<evidence node="Building_Height" state="High" />
		</case>
		<case name="Case0028">
			<evidence node="Building_Height" state="High" />
		</case>
		<case name="Case0029">
			<evidence node="Building_Height" state="High" />
		</case>
		<case name="Case0030">
			<evidence node="Building_Height" state="High" />
		</case>
		<case name="Case0031">
			<evidence node="Building_Height" state="High" />
		</case>
		<case name="Case0032">
			<evidence node="Building_Height" state="High" />
		</case>
		<case name="Case0033">
			<evidence node="Building_Height" state="High" />
		</case>
		<case name="Case0034">
			<evidence node="Building_Height" state="High" />
		</case>
		<case name="Case0035">
			<evidence node="Building_Height" state="High" />
		</case>
		<case name="Case0036">
			<evidence node="Building_Height" state="Low" />
		</case>
		<case name="Case0037">
			<evidence node="Building_Height" state="High" />
		</case>
		<case name="Case0038">
			<evidence node="Building_Height" state="High" />
		</case>
		<case name="Case0039">
			<evidence node="Building_Height" state="High" />
		</case>
		<case name="Case0040">
			<evidence node="Building_Height" state="High" />
		</case>
		<case name="Case0041">
			<evidence node="Building_Height" state="High" />
		</case>
		<case name="Case0042">
			<evidence node="Building_Height" state="High" />
		</case>
	</cases>
	<extensions>
		<genie version="1.0" app="GeNIe 4.1.3724.0 ACADEMIC" name="Network2">
			<node id="Node1">
				<name>Built Assets Flood Resilience</name>
				<interior color="ff9900" />
				<outline color="000080" />
				<font color="000000" name="Arial" size="8" />
				<position>541 71 740 101</position>
				<barchart active="true" width="128" height="72" />
			</node>
			<node id="Rapidity">
				<name>Rapidity</name>
				<interior color="faf59e" />
				<outline color="000080" />
				<font color="000000" name="Arial" size="8" />
				<position>273 133 362 176</position>
				<barchart active="true" width="128" height="72" />
			</node>
			<node id="Redundancy">
				<name>Redundancy</name>
				<interior color="fac074" />
				<outline color="000080" />
				<font color="000000" name="Arial" size="8" />
				<position>490 172 563 217</position>
				<barchart active="true" width="128" height="72" />
			</node>
			<node id="Robustness">
				<name>Robustness</name>
				<interior color="d7f0a8" />
				<outline color="000080" />
				<font color="000000" name="Arial" size="8" />
				<position>721 168 792 212</position>
				<barchart active="true" width="128" height="72" />
			</node>
			<node id="Resourcefulness">
				<name>Resourcefulness</name>
				<interior color="339966" />
				<outline color="000080" />
				<font color="000000" name="Arial" size="8" />
				<position>863 122 970 170</position>
				<barchart active="true" width="128" height="72" />
			</node>
			<node id="Building_Floor_Space">
				<name>Building Floor Space</name>
				<interior color="e5f6f7" />
				<outline color="000080" />
				<font color="000000" name="Arial" size="8" />
				<position>538 290 651 321</position>
				<barchart active="true" width="128" height="64" />
			</node>
			<node id="Insurance_Cover">
				<name>Insurance Cover</name>
				<interior color="e5f6f7" />
				<outline color="000080" />
				<font color="000000" name="Arial" size="8" />
				<position>344 215 435 271</position>
				<barchart active="true" width="128" height="64" />
			</node>
			<node id="Rebuild_Cost">
				<name>Rebuild Cost</name>
				<interior color="e5f6f7" />
				<outline color="000080" />
				<font color="000000" name="Arial" size="8" />
				<position>272 357 345 402</position>
				<barchart active="true" width="128" height="64" />
			</node>
			<node id="Building_Height">
				<name>Building Height</name>
				<interior color="e5f6f7" />
				<outline color="000080" />
				<font color="000000" name="Arial" size="8" />
				<position>424 403 521 437</position>
				<barchart active="true" width="128" height="64" />
			</node>
			<node id="Proximity_to_Body_of_Water">
				<name>Proximity to Body of Water</name>
				<interior color="e5f6f7" />
				<outline color="000080" />
				<font color="000000" name="Arial" size="8" />
				<position>684 299 781 351</position>
				<barchart active="true" width="128" height="64" />
			</node>
			<node id="Total_Rainfall">
				<name>Total Rainfall</name>
				<interior color="e5f6f7" />
				<outline color="000080" />
				<font color="000000" name="Arial" size="8" />
				<position>636 409 709 454</position>
				<barchart active="true" width="128" height="64" />
			</node>
			<node id="Household_Income">
				<name>Household Income</name>
				<interior color="e5f6f7" />
				<outline color="000080" />
				<font color="000000" name="Arial" size="8" />
				<position>881 226 961 276</position>
				<barchart active="true" width="128" height="64" />
			</node>
			<node id="Professional_Fee">
				<name>Professional Fee</name>
				<interior color="e5f6f7" />
				<outline color="000080" />
				<font color="000000" name="Arial" size="8" />
				<position>183 264 274 320</position>
				<barchart active="true" width="128" height="64" />
			</node>
			<node id="Wall_Thickness">
				<name>Wall Thickness</name>
				<interior color="e5f6f7" />
				<outline color="000080" />
				<font color="000000" name="Arial" size="8" />
				<position>818 375 924 436</position>
				<barchart active="true" width="128" height="64" />
			</node>
			<node id="Recorded_Precipitation">
				<name>Recorded Precipitation</name>
				<interior color="e5f6f7" />
				<outline color="000080" />
				<font color="000000" name="Arial" size="8" />
				<position>948 317 996 347</position>
				<barchart active="true" width="128" height="64" />
			</node>
			<arcformat parent="Insurance_Cover" child="Rapidity" width="1" color="000080" />
			<arcformat parent="Rebuild_Cost" child="Rapidity" width="1" color="000080" />
			<arcformat parent="Professional_Fee" child="Rapidity" width="1" color="000080" />
			<arcformat parent="Building_Floor_Space" child="Redundancy" width="1" color="000080" />
			<arcformat parent="Building_Height" child="Redundancy" width="1" color="000080" />
			<arcformat parent="Building_Height" child="Robustness" width="1" color="000080" />
			<arcformat parent="Proximity_to_Body_of_Water" child="Robustness" width="1" color="000080" />
			<arcformat parent="Total_Rainfall" child="Robustness" width="1" color="000080" />
			<arcformat parent="Household_Income" child="Resourcefulness" width="1" color="000080" />
			<arcformat parent="Rapidity" child="Node1" width="1" color="000080" />
			<arcformat parent="Redundancy" child="Node1" width="1" color="000080" />
			<arcformat parent="Robustness" child="Node1" width="1" color="000080" />
			<arcformat parent="Resourcefulness" child="Node1" width="1" color="000080" />
		</genie>
	</extensions>
</smile>
