<?xml version="1.0" encoding="UTF-8"?>
<!-- This network was created in GeNIe Academic, which can be used for academic teaching and research purposes only -->
<smile version="1.0" id="Network2" numsamples="10000" discsamples="10000">
	<nodes>
		<cpt id="Building_Floor_Space">
			<state id="High" />
			<state id="Low" />
			<probabilities>0.5881859018678101 0.4118140981321901</probabilities>
		</cpt>
		<cpt id="Proximity_to_Body_of_Water">
			<state id="High" />
			<state id="Low" />
			<probabilities>0.649224971129216 0.350775028870784</probabilities>
		</cpt>
		<cpt id="Building_Tax">
			<state id="High" />
			<state id="Low" />
			<parents>Proximity_to_Body_of_Water</parents>
			<probabilities>0.9510917700051194 0.04890822999488058 0.9999999996252785 3.74721471056452e-10</probabilities>
		</cpt>
		<cpt id="Total_Rainfall">
			<state id="High" />
			<state id="Low" />
			<probabilities>0.9880290570462402 0.01197094295375987</probabilities>
		</cpt>
		<cpt id="Building_Height">
			<state id="High" />
			<state id="Low" />
			<parents>Proximity_to_Body_of_Water Total_Rainfall</parents>
			<probabilities>0.9695397712074509 0.03046022879254909 0.00607436197496887 0.9939256380250312 0.8935339850245135 0.1064660149754866 0.002477908855410418 0.9975220911445896</probabilities>
		</cpt>
		<cpt id="Flood_Depth">
			<state id="High" />
			<state id="Low" />
			<parents>Building_Floor_Space Total_Rainfall</parents>
			<probabilities>0.04568795223811859 0.9543120477618815 0.827056860986597 0.172943139013403 0.07629043559688867 0.9237095644031112 0.8327256730642149 0.1672743269357852</probabilities>
		</cpt>
		<cpt id="Rebuild_Cost">
			<state id="High" />
			<state id="Low" />
			<parents>Building_Floor_Space Proximity_to_Body_of_Water Building_Height Flood_Depth Total_Rainfall</parents>
			<probabilities>0.7186608606332409 0.2813391393667592 0.68042797 0.31957203 0.6804279699999999 0.3195720300000001 0.6804279699999999 0.31957203 0.68042797 0.31957203 0.6804279700000001 0.31957203 0.68042797 0.3195720300000001 0.6804279700000001 0.3195720300000001 0.6804279700000001 0.31957203 0.68042797 0.3195720300000001 0.68042797 0.31957203 0.68042797 0.31957203 0.6804279699999999 0.3195720300000002 0.68042797 0.31957203 0.6804279699999999 0.3195720300000002 0.68042797 0.31957203 0.68042797 0.3195720300000001 0.68042797 0.31957203 0.6804279699999994 0.3195720300000006 0.68042797 0.31957203 0.68042797 0.3195720300000001 0.6804279700000001 0.3195720299999999 0.6804279699999999 0.3195720300000001 0.68042797 0.31957203 0.6804279699999999 0.3195720300000001 0.68042797 0.31957203 0.6804279700000001 0.3195720299999999 0.68042797 0.31957203 0.68042797 0.3195720300000001 0.6804279699999998 0.3195720300000002 0.6804279699999999 0.3195720300000001 0.68042797 0.3195720300000001</probabilities>
		</cpt>
		<cpt id="Building_Value">
			<state id="High" />
			<state id="Low" />
			<parents>Building_Floor_Space Proximity_to_Body_of_Water Flood_Depth</parents>
			<probabilities>0.257844870680392 0.742155129319608 0.8886732799999998 0.1113267200000003 0.8886732799999998 0.1113267200000001 0.88867328 0.1113267200000002 0.88867328 0.11132672 0.8886732799999999 0.1113267200000003 0.8886732799999998 0.1113267200000002 0.8886732799999998 0.1113267200000002</probabilities>
		</cpt>
		<cpt id="Insurance_Cover">
			<state id="High" />
			<state id="Low" />
			<parents>Building_Floor_Space Proximity_to_Body_of_Water Building_Tax Building_Height Flood_Depth Rebuild_Cost Total_Rainfall Building_Value</parents>
			<probabilities>0.7462567646149535 0.2537432353850466 0.800247670643209 0.1997523293567911 0.8002476706432089 0.1997523293567911 0.8002476706432089 0.1997523293567911 0.8002476706432089 0.1997523293567911 0.8002476706432089 0.1997523293567911 0.800247670643209 0.1997523293567911 0.8002476706432089 0.1997523293567911 0.800247670643209 0.1997523293567909 0.8002476706432089 0.199752329356791 0.800247670643209 0.1997523293567912 0.8002476706432089 0.1997523293567911 0.8002476706432091 0.1997523293567909 0.800247670643209 0.199752329356791 0.8002476706432089 0.1997523293567911 0.800247670643209 0.1997523293567911 0.8002476706432089 0.1997523293567911 0.800247670643209 0.1997523293567911 0.8002476706432089 0.1997523293567911 0.8002476706432089 0.1997523293567911 0.8002476706432089 0.1997523293567911 0.800247670643209 0.1997523293567911 0.8002476706432089 0.1997523293567911 0.8002476706432088 0.1997523293567911 0.8002476706432089 0.1997523293567911 0.800247670643209 0.1997523293567911 0.8002476706432089 0.1997523293567911 0.800247670643209 0.1997523293567911 0.8002476706432088 0.1997523293567911 0.8002476706432089 0.1997523293567911 0.8002476706432089 0.1997523293567911 0.8002476706432089 0.1997523293567911 0.8002476706432089 0.1997523293567911 0.8002476706432089 0.1997523293567911 0.8002476706432089 0.1997523293567911 0.8002476706432089 0.1997523293567911 0.8002476706432089 0.1997523293567911 0.8002476706432089 0.1997523293567911 0.8002476706432089 0.1997523293567911 0.8002476706432089 0.1997523293567911 0.8002476706432089 0.1997523293567911 0.8002476706432089 0.1997523293567911 0.8002476706432089 0.1997523293567911 0.8002476706432088 0.199752329356791 0.800247670643209 0.1997523293567911 0.8002476706432089 0.1997523293567911 0.8002476706432089 0.1997523293567911 0.8002476706432088 0.1997523293567911 0.800247670643209 0.1997523293567912 0.8002476706432089 0.1997523293567911 0.8002476706432089 0.1997523293567911 0.8002476706432089 0.1997523293567911 0.800247670643209 0.1997523293567911 0.800247670643209 0.1997523293567911 0.800247670643209 0.1997523293567912 0.800247670643209 0.1997523293567912 0.800247670643209 0.1997523293567912 0.8002476706432089 0.1997523293567911 0.8002476706432089 0.1997523293567911 0.8002476706432089 0.1997523293567911 0.8002476706432089 0.1997523293567911 0.8002476706432089 0.1997523293567911 0.8002476706432089 0.1997523293567911 0.800247670643209 0.1997523293567911 0.8002476706432088 0.1997523293567911 0.8002476706432089 0.1997523293567911 0.8002476706432088 0.1997523293567911 0.800247670643209 0.1997523293567911 0.8002476706432089 0.1997523293567911 0.800247670643209 0.1997523293567911 0.8002476706432089 0.1997523293567912 0.8002476706432089 0.1997523293567911 0.8002476706432092 0.1997523293567908 0.8002476706432089 0.1997523293567912 0.8002476706432089 0.1997523293567911 0.800247670643209 0.1997523293567911 0.8002476706432087 0.1997523293567912 0.8002476706432088 0.1997523293567911 0.8002476706432088 0.1997523293567911 0.8002476706432088 0.1997523293567911 0.8002476706432091 0.199752329356791 0.800247670643209 0.1997523293567911 0.800247670643209 0.199752329356791 0.8002476706432089 0.1997523293567911 0.8002476706432089 0.1997523293567911 0.8002476706432089 0.1997523293567911 0.8002476706432091 0.199752329356791 0.8002476706432089 0.1997523293567911 0.800247670643209 0.199752329356791 0.8002476706432089 0.1997523293567911 0.8002476706432089 0.1997523293567911 0.8002476706432088 0.1997523293567911 0.8002476706432089 0.199752329356791 0.800247670643209 0.1997523293567911 0.8002476706432089 0.1997523293567911 0.8002476706432089 0.1997523293567911 0.8002476706432089 0.1997523293567911 0.8002476706432089 0.1997523293567911 0.800247670643209 0.1997523293567912 0.8002476706432089 0.1997523293567911 0.800247670643209 0.1997523293567911 0.8002476706432089 0.1997523293567911 0.8002476706432089 0.1997523293567911 0.800247670643209 0.1997523293567912 0.8002476706432088 0.1997523293567911 0.800247670643209 0.1997523293567911 0.8002476706432089 0.1997523293567911 0.800247670643209 0.1997523293567911 0.8002476706432088 0.1997523293567911 0.8002476706432089 0.1997523293567911 0.8002476706432089 0.1997523293567911 0.8002476706432089 0.1997523293567911 0.800247670643209 0.1997523293567912 0.8002476706432089 0.1997523293567911 0.8002476706432089 0.1997523293567911 0.800247670643209 0.1997523293567912 0.8002476706432089 0.1997523293567911 0.8002476706432089 0.1997523293567911 0.8002476706432089 0.1997523293567911 0.8002476706432089 0.1997523293567911 0.8002476706432089 0.1997523293567911 0.8002476706432089 0.1997523293567911 0.8002476706432089 0.1997523293567911 0.8002476706432089 0.1997523293567911 0.8002476706432089 0.1997523293567911 0.8002476706432089 0.1997523293567911 0.8002476706432089 0.1997523293567911 0.8002476706432089 0.1997523293567911 0.8002476706432089 0.1997523293567911 0.8002476706432089 0.199752329356791 0.8002476706432089 0.1997523293567911 0.800247670643209 0.1997523293567911 0.8002476706432088 0.1997523293567911 0.800247670643209 0.1997523293567911 0.8002476706432089 0.1997523293567911 0.800247670643209 0.1997523293567911 0.8002476706432091 0.199752329356791 0.8002476706432089 0.1997523293567912 0.800247670643209 0.1997523293567911 0.800247670643209 0.1997523293567911 0.8002476706432089 0.1997523293567912 0.8002476706432089 0.1997523293567912 0.8002476706432089 0.199752329356791 0.800247670643209 0.1997523293567911 0.8002476706432089 0.1997523293567911 0.8002476706432089 0.1997523293567911 0.800247670643209 0.1997523293567912 0.8002476706432089 0.1997523293567911 0.800247670643209 0.1997523293567912 0.8002476706432089 0.1997523293567911 0.8002476706432089 0.1997523293567912 0.8002476706432089 0.1997523293567911 0.8002476706432089 0.1997523293567911 0.8002476706432089 0.1997523293567911 0.800247670643209 0.1997523293567911 0.8002476706432088 0.1997523293567911 0.8002476706432089 0.1997523293567911 0.8002476706432089 0.1997523293567911 0.8002476706432089 0.1997523293567911 0.8002476706432089 0.1997523293567911 0.800247670643209 0.1997523293567911 0.8002476706432089 0.1997523293567911 0.800247670643209 0.1997523293567912 0.8002476706432089 0.1997523293567911 0.8002476706432089 0.1997523293567911 0.800247670643209 0.1997523293567911 0.800247670643209 0.1997523293567911 0.8002476706432089 0.1997523293567911 0.8002476706432089 0.1997523293567911 0.8002476706432089 0.1997523293567911 0.8002476706432089 0.1997523293567911 0.8002476706432089 0.1997523293567911 0.8002476706432089 0.1997523293567911 0.8002476706432089 0.1997523293567911 0.8002476706432088 0.1997523293567911 0.8002476706432089 0.1997523293567911 0.800247670643209 0.1997523293567912 0.800247670643209 0.1997523293567911 0.8002476706432089 0.1997523293567911 0.800247670643209 0.1997523293567912 0.8002476706432089 0.1997523293567911 0.800247670643209 0.1997523293567911 0.8002476706432089 0.1997523293567911 0.800247670643209 0.1997523293567912 0.800247670643209 0.1997523293567911 0.8002476706432088 0.1997523293567911 0.8002476706432089 0.1997523293567911 0.800247670643209 0.1997523293567911 0.800247670643209 0.1997523293567912 0.8002476706432089 0.1997523293567911 0.800247670643209 0.1997523293567912 0.8002476706432089 0.1997523293567911 0.8002476706432089 0.1997523293567911 0.8002476706432089 0.1997523293567911 0.8002476706432089 0.1997523293567911 0.8002476706432088 0.1997523293567911 0.800247670643209 0.1997523293567911 0.8002476706432089 0.1997523293567912 0.800247670643209 0.1997523293567911 0.800247670643209 0.1997523293567911 0.8002476706432088 0.1997523293567911 0.8002476706432089 0.1997523293567911 0.8002476706432089 0.199752329356791 0.8002476706432089 0.1997523293567911 0.800247670643209 0.199752329356791 0.8002476706432089 0.1997523293567911 0.8002476706432089 0.1997523293567911 0.8002476706432089 0.1997523293567911 0.8002476706432089 0.1997523293567912 0.800247670643209 0.199752329356791 0.8002476706432089 0.1997523293567912 0.800247670643209 0.1997523293567911 0.8002476706432089 0.1997523293567912 0.8002476706432089 0.1997523293567911 0.8002476706432089 0.1997523293567912 0.800247670643209 0.1997523293567912 0.800247670643209 0.1997523293567911 0.8002476706432089 0.1997523293567911 0.8002476706432088 0.1997523293567911 0.8002476706432088 0.1997523293567911 0.8002476706432089 0.1997523293567911 0.8002476706432089 0.1997523293567911 0.8002476706432088 0.1997523293567911 0.8002476706432089 0.1997523293567911 0.800247670643209 0.1997523293567911 0.8002476706432089 0.1997523293567911 0.8002476706432089 0.1997523293567911 0.8002476706432089 0.1997523293567911 0.8002476706432089 0.1997523293567911 0.8002476706432089 0.1997523293567911 0.8002476706432089 0.1997523293567911 0.8002476706432089 0.1997523293567911 0.8002476706432089 0.1997523293567911 0.8002476706432089 0.1997523293567911 0.8002476706432089 0.1997523293567911 0.8002476706432089 0.1997523293567911 0.8002476706432089 0.1997523293567911 0.8002476706432089 0.1997523293567911 0.8002476706432089 0.1997523293567911 0.8002476706432089 0.1997523293567911 0.8002476706432089 0.1997523293567911 0.800247670643209 0.1997523293567911 0.8002476706432089 0.1997523293567911 0.8002476706432089 0.1997523293567911 0.8002476706432089 0.1997523293567911 0.8002476706432089 0.1997523293567911 0.8002476706432089 0.1997523293567911 0.800247670643209 0.1997523293567912 0.800247670643209 0.1997523293567911 0.800247670643209 0.1997523293567911 0.800247670643209 0.1997523293567912 0.800247670643209 0.1997523293567912 0.8002476706432089 0.1997523293567911 0.8002476706432089 0.1997523293567911 0.800247670643209 0.1997523293567911 0.800247670643209 0.1997523293567911</probabilities>
		</cpt>
		<cpt id="Proximity_to_Water_Culvert">
			<state id="High" />
			<state id="Low" />
			<parents>Proximity_to_Body_of_Water</parents>
			<probabilities>0.9991915530493316 0.0008084469506683882 0.4999999999988605 0.5000000000011393</probabilities>
		</cpt>
		<cpt id="Professional_Fee">
			<state id="High" />
			<state id="Low" />
			<parents>Building_Height Proximity_to_Water_Culvert</parents>
			<probabilities>0.07994714150887929 0.9200528584911208 0.4999999999999999 0.4999999999999999 0.8816914419999999 0.118308558 0.5 0.5</probabilities>
		</cpt>
		<cpt id="Rapidity">
			<state id="High" />
			<state id="Medium" />
			<state id="Low" />
			<parents>Insurance_Cover Rebuild_Cost Proximity_to_Water_Culvert Professional_Fee</parents>
			<probabilities>0.2431006918764937 0.4162415354124682 0.3406577727110381 0.2499999999999999 0.2099999999999993 0.5400000000000008 0.2500000000000002 0.2099999999999999 0.5399999999999998 0.2500000000000002 0.2099999999999999 0.5399999999999998 0.2500000000000002 0.2100000000000001 0.5399999999999997 0.2499999999999995 0.2099999999999997 0.5400000000000008 0.2500000000000004 0.2099999999999996 0.5400000000000001 0.2500000000000004 0.2099999999999996 0.5400000000000001 0.25 0.2100000000000002 0.5399999999999998 0.2499999999999997 0.21 0.5400000000000001 0.2499999999999999 0.2099999999999993 0.5400000000000007 0.2499999999999999 0.2099999999999993 0.5400000000000007 0.2500000000000002 0.2100000000000001 0.5399999999999997 0.2499999999999998 0.2099999999999995 0.5400000000000008 0.2500000000000002 0.2099999999999997 0.54 0.2500000000000002 0.2099999999999997 0.54</probabilities>
		</cpt>
		<cpt id="No_of_Floors">
			<state id="High" />
			<state id="Low" />
			<parents>Building_Height</parents>
			<probabilities>0.0324997998577354 0.9675002001422646 1.327984666544732e-08 0.9999999867201533</probabilities>
		</cpt>
		<cpt id="Redundancy">
			<state id="High" />
			<state id="Medium" />
			<state id="Low" />
			<parents>Building_Floor_Space Building_Height No_of_Floors</parents>
			<probabilities>0.2407069112025188 0.1451126025628571 0.6141804862346243 0.1162616800000002 0.1337383200000002 0.7499999999999996 0.11626168 0.13373832 0.75 0.1162616800000003 0.1337383200000003 0.7499999999999994 0.11626168 0.13373832 0.7500000000000001 0.1162616800000001 0.1337383199999997 0.7500000000000002 0.11626168 0.13373832 0.75 0.1162616800000001 0.1337383200000002 0.7499999999999997</probabilities>
		</cpt>
		<cpt id="Robustness">
			<state id="High" />
			<state id="Medium" />
			<state id="Low" />
			<parents>Building_Height Proximity_to_Body_of_Water Flood_Depth Total_Rainfall</parents>
			<probabilities>0.2695746374811879 0.2262807602615875 0.5041446022572245 0.153752829 0.146247171 0.7 0.153752829 0.1462471709999997 0.7000000000000003 0.153752829 0.146247171 0.7000000000000001 0.153752829 0.146247171 0.7 0.1537528290000001 0.146247171 0.7 0.1537528290000001 0.146247171 0.6999999999999998 0.153752829 0.146247171 0.7 0.1537528289999999 0.1462471709999999 0.7000000000000002 0.1537528290000001 0.146247171 0.7 0.1537528290000001 0.146247171 0.6999999999999998 0.1537528290000001 0.1462471710000001 0.6999999999999998 0.1537528289999997 0.1462471709999999 0.7000000000000004 0.1537528290000002 0.1462471709999998 0.7 0.1537528289999998 0.1462471709999999 0.7000000000000002 0.153752829 0.1462471710000001 0.6999999999999997</probabilities>
		</cpt>
		<cpt id="Resourcefulness">
			<state id="High" />
			<state id="Medium" />
			<state id="Low" />
			<parents>Building_Value Building_Tax Proximity_to_Water_Culvert</parents>
			<probabilities>0.389619561871053 0.1990117283870629 0.4113687097418842 0.3333333332650463 0.3333333332568559 0.3333333334780977 0.3333333333325663 0.3333333333324676 0.3333333333349662 0.3333333333333285 0.3333333333333278 0.3333333333333437 0.3333333332606648 0.3333333332513268 0.3333333334880084 0.3333333332650561 0.3333333332568651 0.333333333478079 0.3333333333326405 0.3333333333325515 0.3333333333348079 0.3333333333333286 0.3333333333333279 0.3333333333333435</probabilities>
		</cpt>
		<cpt id="Built_Assets_Flood_Resilience">
			<state id="High" />
			<state id="Medium" />
			<state id="Low" />
			<parents>Rapidity Redundancy Robustness Resourcefulness</parents>
			<probabilities>0.1919492804192002 0.7178175467771353 0.09023317280366448 0.2333333332333335 0.333333333333333 0.4333333334333334 0.1363505761895363 0.1678160938104636 0.69583333 0.08333333308333332 0.3333333333333333 0.5833333335833334 0.2333333332333332 0.333333333333333 0.4333333334333338 0.1363505761895361 0.1678160938104638 0.69583333 0.08333333308333327 0.3333333333333335 0.5833333335833334 0.2333333332333334 0.3333333333333329 0.4333333334333336 0.1363505761895363 0.1678160938104637 0.69583333 0.08333333308333329 0.3333333333333332 0.5833333335833336 0.2333333332333335 0.3333333333333334 0.4333333334333332 0.1363505761895364 0.1678160938104638 0.6958333299999998 0.08333333308333338 0.3333333333333334 0.5833333335833333 0.2333333332333335 0.3333333333333331 0.4333333334333335 0.1363505761895361 0.1678160938104635 0.6958333300000004 0.08333333308333338 0.3333333333333332 0.5833333335833335 0.2333333332333332 0.3333333333333331 0.4333333334333336 0.1363505761895363 0.1678160938104638 0.69583333 0.08333333308333331 0.3333333333333335 0.5833333335833331 0.2333333332333333 0.3333333333333335 0.4333333334333332 0.1363505761895362 0.1678160938104638 0.6958333299999999 0.08333333308333331 0.3333333333333335 0.5833333335833332 0.2333333332333334 0.3333333333333335 0.433333333433333 0.1363505761895361 0.1678160938104634 0.6958333300000005 0.08333333308333324 0.3333333333333328 0.5833333335833341 0.233333333233333 0.3333333333333341 0.4333333334333329 0.1363505761895363 0.1678160938104637 0.69583333 0.08333333308333328 0.3333333333333329 0.5833333335833338 0.2333333332333334 0.3333333333333333 0.4333333334333332 0.1363505761895361 0.1678160938104637 0.6958333300000004 0.08333333308333327 0.3333333333333335 0.5833333335833334 0.2333333332333334 0.3333333333333331 0.4333333334333335 0.1363505761895362 0.1678160938104638 0.69583333 0.08333333308333335 0.3333333333333335 0.5833333335833332 0.2333333332333334 0.3333333333333334 0.4333333334333332 0.1363505761895361 0.1678160938104636 0.6958333300000002 0.08333333308333332 0.3333333333333333 0.5833333335833333 0.2333333332333335 0.3333333333333335 0.4333333334333331 0.1363505761895362 0.1678160938104638 0.6958333300000001 0.08333333308333324 0.3333333333333334 0.5833333335833333 0.2333333332333334 0.3333333333333331 0.4333333334333336 0.1363505761895362 0.1678160938104637 0.6958333300000002 0.0833333330833332 0.3333333333333333 0.5833333335833334 0.2333333332333332 0.3333333333333333 0.4333333334333334 0.1363505761895364 0.1678160938104639 0.6958333299999998 0.08333333308333325 0.3333333333333331 0.5833333335833337 0.2333333332333334 0.3333333333333329 0.4333333334333335 0.1363505761895362 0.1678160938104639 0.6958333299999999 0.08333333308333343 0.3333333333333333 0.5833333335833332 0.2333333332333334 0.3333333333333335 0.4333333334333332 0.1363505761895362 0.1678160938104639 0.6958333299999999 0.08333333308333328 0.3333333333333334 0.5833333335833334 0.2333333332333331 0.3333333333333333 0.4333333334333334 0.1363505761895364 0.1678160938104641 0.6958333299999994 0.08333333308333342 0.3333333333333331 0.5833333335833334 0.2333333332333332 0.3333333333333336 0.4333333334333331 0.1363505761895363 0.1678160938104638 0.6958333299999999 0.08333333308333341 0.3333333333333331 0.5833333335833334 0.2333333332333336 0.3333333333333333 0.4333333334333331 0.1363505761895361 0.1678160938104638 0.6958333299999999 0.08333333308333324 0.3333333333333329 0.5833333335833339 0.2333333332333334 0.3333333333333333 0.4333333334333332 0.1363505761895362 0.1678160938104638 0.69583333 0.08333333308333318 0.3333333333333334 0.5833333335833335 0.2333333332333332 0.333333333333333 0.4333333334333337 0.1363505761895361 0.1678160938104638 0.69583333 0.08333333308333336 0.3333333333333329 0.5833333335833336 0.2333333332333334 0.3333333333333334 0.4333333334333332 0.1363505761895364 0.1678160938104636 0.69583333 0.08333333308333342 0.3333333333333339 0.5833333335833326 0.2333333332333337 0.3333333333333335 0.4333333334333329 0.1363505761895365 0.1678160938104637 0.6958333299999998 0.08333333308333328 0.333333333333333 0.5833333335833336 0.2333333332333331 0.3333333333333338 0.4333333334333331 0.1363505761895362 0.1678160938104637 0.6958333300000001 0.08333333308333332 0.333333333333333 0.5833333335833337 0.2333333332333338 0.3333333333333328 0.4333333334333333 0.1363505761895361 0.1678160938104638 0.69583333 0.08333333308333342 0.3333333333333329 0.5833333335833337 0.233333333233333 0.3333333333333329 0.4333333334333341 0.1363505761895365 0.1678160938104642 0.6958333299999994</probabilities>
		</cpt>
	</nodes>
	<cases>
		<case name="Case0001">
			<evidence node="Building_Tax" state="High" />
			<evidence node="No_of_Floors" state="Low" />
		</case>
		<case name="Case0002">
			<evidence node="Building_Tax" state="High" />
			<evidence node="No_of_Floors" state="Low" />
		</case>
		<case name="Case0003">
			<evidence node="Building_Tax" state="High" />
			<evidence node="No_of_Floors" state="Low" />
		</case>
		<case name="Case0004">
			<evidence node="Building_Tax" state="High" />
			<evidence node="No_of_Floors" state="Low" />
		</case>
		<case name="Case0005">
			<evidence node="Building_Tax" state="High" />
			<evidence node="No_of_Floors" state="Low" />
		</case>
		<case name="Case0006">
			<evidence node="Building_Tax" state="High" />
			<evidence node="No_of_Floors" state="Low" />
		</case>
		<case name="Case0007">
			<evidence node="Building_Tax" state="High" />
			<evidence node="No_of_Floors" state="Low" />
		</case>
		<case name="Case0008">
			<evidence node="Building_Tax" state="High" />
			<evidence node="No_of_Floors" state="Low" />
		</case>
		<case name="Case0009">
			<evidence node="Building_Tax" state="High" />
			<evidence node="No_of_Floors" state="Low" />
		</case>
		<case name="Case0010">
			<evidence node="Building_Tax" state="High" />
			<evidence node="No_of_Floors" state="Low" />
		</case>
		<case name="Case0011">
			<evidence node="Building_Tax" state="High" />
			<evidence node="No_of_Floors" state="Low" />
		</case>
		<case name="Case0012">
			<evidence node="Building_Tax" state="High" />
			<evidence node="No_of_Floors" state="Low" />
		</case>
		<case name="Case0013">
			<evidence node="Building_Tax" state="High" />
			<evidence node="No_of_Floors" state="Low" />
		</case>
		<case name="Case0014">
			<evidence node="Building_Tax" state="High" />
			<evidence node="No_of_Floors" state="Low" />
		</case>
		<case name="Case0015">
			<evidence node="Building_Tax" state="Low" />
			<evidence node="No_of_Floors" state="Low" />
		</case>
		<case name="Case0016">
			<evidence node="Building_Tax" state="High" />
			<evidence node="No_of_Floors" state="High" />
		</case>
		<case name="Case0017">
			<evidence node="Building_Tax" state="High" />
			<evidence node="No_of_Floors" state="Low" />
		</case>
		<case name="Case0018">
			<evidence node="Building_Tax" state="High" />
			<evidence node="No_of_Floors" state="Low" />
		</case>
		<case name="Case0019">
			<evidence node="Building_Tax" state="High" />
			<evidence node="No_of_Floors" state="Low" />
		</case>
		<case name="Case0020">
			<evidence node="Building_Tax" state="High" />
			<evidence node="No_of_Floors" state="Low" />
		</case>
		<case name="Case0021">
			<evidence node="Building_Tax" state="High" />
			<evidence node="No_of_Floors" state="Low" />
		</case>
		<case name="Case0022">
			<evidence node="Building_Tax" state="High" />
			<evidence node="No_of_Floors" state="Low" />
		</case>
		<case name="Case0023">
			<evidence node="Building_Tax" state="High" />
			<evidence node="No_of_Floors" state="Low" />
		</case>
		<case name="Case0024">
			<evidence node="Building_Tax" state="High" />
			<evidence node="No_of_Floors" state="Low" />
		</case>
		<case name="Case0025">
			<evidence node="Building_Tax" state="High" />
			<evidence node="No_of_Floors" state="Low" />
		</case>
		<case name="Case0026">
			<evidence node="Building_Tax" state="High" />
			<evidence node="No_of_Floors" state="Low" />
		</case>
		<case name="Case0027">
			<evidence node="Building_Tax" state="High" />
			<evidence node="No_of_Floors" state="Low" />
		</case>
		<case name="Case0028">
			<evidence node="Building_Tax" state="High" />
			<evidence node="No_of_Floors" state="Low" />
		</case>
		<case name="Case0029">
			<evidence node="Building_Tax" state="High" />
			<evidence node="No_of_Floors" state="Low" />
		</case>
		<case name="Case0030">
			<evidence node="Building_Tax" state="High" />
			<evidence node="No_of_Floors" state="Low" />
		</case>
		<case name="Case0031">
			<evidence node="Building_Tax" state="High" />
			<evidence node="No_of_Floors" state="Low" />
		</case>
		<case name="Case0032">
			<evidence node="Building_Tax" state="High" />
			<evidence node="No_of_Floors" state="Low" />
		</case>
		<case name="Case0033">
			<evidence node="Building_Tax" state="High" />
			<evidence node="No_of_Floors" state="Low" />
		</case>
		<case name="Case0034">
			<evidence node="Building_Tax" state="High" />
			<evidence node="No_of_Floors" state="Low" />
		</case>
		<case name="Case0035">
			<evidence node="Building_Tax" state="High" />
			<evidence node="No_of_Floors" state="Low" />
		</case>
		<case name="Case0036">
			<evidence node="Building_Tax" state="High" />
			<evidence node="No_of_Floors" state="Low" />
		</case>
		<case name="Case0037">
			<evidence node="Building_Tax" state="High" />
			<evidence node="No_of_Floors" state="Low" />
		</case>
		<case name="Case0038">
			<evidence node="Building_Tax" state="High" />
			<evidence node="No_of_Floors" state="Low" />
		</case>
		<case name="Case0039">
			<evidence node="Building_Tax" state="High" />
			<evidence node="No_of_Floors" state="Low" />
		</case>
		<case name="Case0040">
			<evidence node="Building_Tax" state="High" />
			<evidence node="No_of_Floors" state="Low" />
		</case>
		<case name="Case0041">
			<evidence node="Building_Tax" state="High" />
			<evidence node="No_of_Floors" state="Low" />
		</case>
		<case name="Case0042">
			<evidence node="Building_Tax" state="High" />
			<evidence node="No_of_Floors" state="Low" />
		</case>
	</cases>
	<extensions>
		<genie version="1.0" app="GeNIe 4.1.3724.0 ACADEMIC" name="Network2">
			<node id="Rapidity">
				<name>Rapidity</name>
				<interior color="faf59e" />
				<outline color="000080" />
				<font color="000000" name="Arial" size="8" />
				<position>253 143 342 186</position>
				<barchart active="true" width="128" height="72" />
			</node>
			<node id="Redundancy">
				<name>Redundancy</name>
				<interior color="fac074" />
				<outline color="000080" />
				<font color="000000" name="Arial" size="8" />
				<position>456 162 533 207</position>
				<barchart active="true" width="128" height="72" />
			</node>
			<node id="Robustness">
				<name>Robustness</name>
				<interior color="d7f0a8" />
				<outline color="000080" />
				<font color="000000" name="Arial" size="8" />
				<position>760 167 831 211</position>
				<barchart active="true" width="128" height="72" />
			</node>
			<node id="Resourcefulness">
				<name>Resourcefulness</name>
				<interior color="339966" />
				<outline color="000080" />
				<font color="000000" name="Arial" size="8" />
				<position>915 149 1022 197</position>
				<barchart active="true" width="128" height="64" />
			</node>
			<node id="Building_Floor_Space">
				<name>Building Floor Space</name>
				<interior color="e5f6f7" />
				<outline color="000080" />
				<font color="000000" name="Arial" size="8" />
				<position>505 323 618 354</position>
				<barchart active="true" width="128" height="64" />
			</node>
			<node id="Insurance_Cover">
				<name>Insurance Cover</name>
				<interior color="e5f6f7" />
				<outline color="000080" />
				<font color="000000" name="Arial" size="8" />
				<position>364 241 455 297</position>
				<barchart active="true" width="128" height="64" />
			</node>
			<node id="Proximity_to_Water_Culvert">
				<name>Proximity to Water Culvert</name>
				<interior color="e5f6f7" />
				<outline color="000080" />
				<font color="000000" name="Arial" size="8" />
				<position>485 490 582 550</position>
				<barchart active="true" width="128" height="64" />
			</node>
			<node id="Rebuild_Cost">
				<name>Rebuild Cost</name>
				<interior color="e5f6f7" />
				<outline color="000080" />
				<font color="000000" name="Arial" size="8" />
				<position>270 417 343 462</position>
				<barchart active="true" width="128" height="64" />
			</node>
			<node id="Building_Height">
				<name>Building Height</name>
				<interior color="e5f6f7" />
				<outline color="000080" />
				<font color="000000" name="Arial" size="8" />
				<position>422 408 519 442</position>
				<barchart active="true" width="128" height="64" />
			</node>
			<node id="No_of_Floors">
				<name>No of Floors</name>
				<interior color="e5f6f7" />
				<outline color="000080" />
				<font color="000000" name="Arial" size="8" />
				<position>608 234 696 266</position>
				<barchart active="true" width="128" height="64" />
			</node>
			<node id="Proximity_to_Body_of_Water">
				<name>Proximity to Body of Water</name>
				<interior color="e5f6f7" />
				<outline color="000080" />
				<font color="000000" name="Arial" size="8" />
				<position>691 341 788 393</position>
				<barchart active="true" width="128" height="64" />
			</node>
			<node id="Flood_Depth">
				<name>Flood Depth</name>
				<interior color="e5f6f7" />
				<outline color="000080" />
				<font color="000000" name="Arial" size="8" />
				<position>834 465 916 510</position>
				<barchart active="true" width="128" height="64" />
			</node>
			<node id="Total_Rainfall">
				<name>Total Rainfall</name>
				<interior color="e5f6f7" />
				<outline color="000080" />
				<font color="000000" name="Arial" size="8" />
				<position>676 487 749 532</position>
				<barchart active="true" width="128" height="64" />
			</node>
			<node id="Building_Value">
				<name>Building Value</name>
				<interior color="e5f6f7" />
				<outline color="000080" />
				<font color="000000" name="Arial" size="8" />
				<position>903 368 983 418</position>
				<barchart active="true" width="128" height="64" />
			</node>
			<node id="Building_Tax">
				<name>Building Tax</name>
				<interior color="e5f6f7" />
				<outline color="000080" />
				<font color="000000" name="Arial" size="8" />
				<position>919 281 990 325</position>
				<barchart active="true" width="128" height="64" />
			</node>
			<node id="Professional_Fee">
				<name>Professional Fee</name>
				<interior color="e5f6f7" />
				<outline color="000080" />
				<font color="000000" name="Arial" size="8" />
				<position>221 289 312 345</position>
				<barchart active="true" width="128" height="64" />
			</node>
			<node id="Built_Assets_Flood_Resilience">
				<name>Built Assets Flood Resilience</name>
				<interior color="ff9900" />
				<outline color="000080" />
				<font color="000000" name="Arial" size="8" />
				<position>554 29 742 90</position>
				<barchart active="true" width="128" height="72" />
			</node>
			<arcformat parent="Flood_Depth" child="Building_Value" width="1" color="a0a0a0" />
		</genie>
	</extensions>
</smile>
