<?xml version="1.0" encoding="UTF-8"?>
<!-- This network was created in GeNIe Academic, which can be used for academic teaching and research purposes only -->
<smile version="1.0" id="Network2" numsamples="10000" discsamples="10000">
	<nodes>
		<cpt id="Household_Income">
			<state id="High" />
			<state id="Low" />
			<probabilities>0.9395799989837063 0.0604200010162936</probabilities>
		</cpt>
		<cpt id="Proximity_to_Nearest_Water_Culvert">
			<state id="High" />
			<state id="Low" />
			<parents>Household_Income</parents>
			<probabilities>0.9361787158210665 0.06382128417893339 0.001943733323366675 0.9980562666766333</probabilities>
		</cpt>
		<cpt id="Nearest_Tree_Proximity">
			<state id="High" />
			<state id="Low" />
			<parents>Proximity_to_Nearest_Water_Culvert</parents>
			<probabilities>0.9628217598598707 0.03717824014012938 0.5007284957570639 0.499271504242936</probabilities>
		</cpt>
		<cpt id="Building_Age">
			<state id="High" />
			<state id="Low" />
			<probabilities>0.6226107044670139 0.3773892955329859</probabilities>
		</cpt>
		<cpt id="Building_Height">
			<state id="High" />
			<state id="Low" />
			<parents>Building_Age</parents>
			<probabilities>0.06716809665115145 0.9328319033488485 2.287339992859428e-06 0.9999977126600071</probabilities>
		</cpt>
		<cpt id="Value_of_Built_Asset">
			<state id="High" />
			<state id="Low" />
			<parents>Building_Age</parents>
			<probabilities>0.9144956153117567 0.08550438468824319 0.9999541968884831 4.580311151684344e-05</probabilities>
		</cpt>
		<cpt id="Rebuild_Cost">
			<state id="High" />
			<state id="Low" />
			<parents>Building_Age</parents>
			<probabilities>0.6821654193435381 0.3178345806564618 0.6546540026395437 0.3453459973604565</probabilities>
		</cpt>
		<cpt id="Insurance_Cover">
			<state id="High" />
			<state id="Low" />
			<parents>Proximity_to_Nearest_Water_Culvert Nearest_Tree_Proximity Household_Income</parents>
			<probabilities>0.4767453275950509 0.5232546724049492 0.4708322992199384 0.5291677007800617 0.4708322992199384 0.5291677007800617 0.4708322992199384 0.5291677007800617 0.4708322992199383 0.5291677007800617 0.4708322992199384 0.5291677007800617 0.4708322992199384 0.5291677007800617 0.4708322992199383 0.5291677007800617</probabilities>
		</cpt>
		<cpt id="Rapidity">
			<state id="High" />
			<state id="Medium" />
			<state id="Low" />
			<parents>Insurance_Cover Rebuild_Cost Household_Income Proximity_to_Nearest_Water_Culvert</parents>
			<probabilities>0.09307398716004252 0.420810496290848 0.4861155165491095 0.5582736840955826 0.0413951057714566 0.4003312101329608 0.169629834269436 0.5750686699999999 0.255301495730564 0.5582736840955826 0.0413951057714566 0.4003312101329608 0.1696298342694361 0.5750686699999998 0.255301495730564 0.5582736840955825 0.04139510577145659 0.4003312101329609 0.169629834269436 0.5750686699999999 0.255301495730564 0.5582736840955825 0.04139510577145659 0.4003312101329609 0.1696298342694361 0.5750686699999998 0.255301495730564 0.5582736840955825 0.04139510577145659 0.400331210132961 0.169629834269436 0.5750686699999999 0.255301495730564 0.5582736840955825 0.04139510577145659 0.4003312101329609 0.1696298342694361 0.5750686699999999 0.2553014957305639 0.5582736840955824 0.04139510577145659 0.4003312101329609 0.169629834269436 0.5750686699999999 0.255301495730564 0.5582736840955824 0.04139510577145659 0.4003312101329609</probabilities>
		</cpt>
		<cpt id="Redundancy">
			<state id="High" />
			<state id="Medium" />
			<state id="Low" />
			<parents>Building_Height Building_Age</parents>
			<probabilities>0.3949966448994361 0.448730478944562 0.1562728761560019 0.494332765400224 0.4675576882902279 0.0381095463095482 0.4943327654002241 0.4675576882902277 0.03810954630954821 0.4943327654002239 0.467557688290228 0.03810954630954817</probabilities>
		</cpt>
		<cpt id="Robustness">
			<state id="High" />
			<state id="Medium" />
			<state id="Low" />
			<parents>Building_Height Building_Age</parents>
			<probabilities>0.04357022060673925 0.2262588768378466 0.7301709025554142 0.6209991136032473 0.252028423 0.1269724633967526 0.5108609117057338 0.3415238560000001 0.147615232294266 0.6209991136032474 0.2520284229999999 0.1269724633967526</probabilities>
		</cpt>
		<cpt id="Resourcefulness">
			<state id="High" />
			<state id="Medium" />
			<state id="Low" />
			<parents>Household_Income Nearest_Tree_Proximity Value_of_Built_Asset Proximity_to_Nearest_Water_Culvert</parents>
			<probabilities>0.2594218876866359 0.2083502212484823 0.5322278910648818 0.3672440729210125 0.3913077739999997 0.2414481530789878 0.7270666970000002 0.1467578480635552 0.1261754549364447 0.3672440729210124 0.391307774 0.2414481530789877 0.727066697 0.1467578480635552 0.1261754549364448 0.3672440729210124 0.391307774 0.2414481530789877 0.727066697 0.1467578480635552 0.1261754549364448 0.3672440729210124 0.391307774 0.2414481530789877 0.727066697 0.1467578480635552 0.1261754549364448 0.3672440729210124 0.391307774 0.2414481530789877 0.727066697 0.1467578480635552 0.1261754549364448 0.3672440729210124 0.391307774 0.2414481530789877 0.727066697 0.1467578480635552 0.1261754549364448 0.3672440729210126 0.3913077739999997 0.2414481530789878 0.727066697 0.1467578480635552 0.1261754549364448 0.3672440729210124 0.391307774 0.2414481530789877</probabilities>
		</cpt>
		<cpt id="Built_Assets_Flood_Resilience">
			<state id="High" />
			<state id="Medium" />
			<state id="Low" />
			<parents>Rapidity Redundancy Robustness Resourcefulness</parents>
			<probabilities>0.2603761291235049 0.3487547614708394 0.3908691094056556 0.2333333332333335 0.333333333333333 0.4333333334333335 0.1363505761895364 0.1678160938104636 0.6958333300000001 0.6706214835492958 0.06624601576866246 0.2631325006820416 0.2333333332333336 0.3333333333333329 0.4333333334333337 0.1363505761895362 0.1678160938104638 0.69583333 0.6706214835492957 0.06624601576866267 0.2631325006820415 0.2333333332333335 0.3333333333333331 0.4333333334333335 0.1363505761895364 0.1678160938104638 0.6958333299999998 0.6706214835492957 0.06624601576866269 0.2631325006820416 0.2333333332333336 0.3333333333333335 0.4333333334333329 0.1363505761895363 0.1678160938104639 0.6958333299999998 0.6706214835492954 0.06624601576866272 0.263132500682042 0.2333333332333334 0.3333333333333331 0.4333333334333336 0.1363505761895361 0.1678160938104636 0.6958333300000002 0.670621483549296 0.06624601576866262 0.2631325006820414 0.2333333332333328 0.3333333333333336 0.4333333334333337 0.1363505761895364 0.1678160938104635 0.6958333300000001 0.6706214835492956 0.06624601576866269 0.2631325006820416 0.2333333332333332 0.3333333333333333 0.4333333334333334 0.1363505761895362 0.1678160938104637 0.6958333300000002 0.670621483549296 0.0662460157686626 0.2631325006820415 0.2333333332333335 0.3333333333333343 0.4333333334333322 0.1363505761895363 0.1678160938104635 0.6958333300000002 0.6706214835492958 0.06624601576866271 0.2631325006820414 0.2333333332333334 0.3333333333333338 0.4333333334333327 0.1363505761895364 0.1678160938104638 0.6958333299999999 0.6706214835492956 0.06624601576866271 0.2631325006820416 0.2333333332333334 0.3333333333333335 0.4333333334333332 0.136350576189536 0.1678160938104635 0.6958333300000006 0.6706214835492957 0.06624601576866262 0.2631325006820415 0.2333333332333334 0.3333333333333333 0.4333333334333333 0.136350576189536 0.1678160938104638 0.6958333300000004 0.6706214835492957 0.06624601576866272 0.2631325006820416 0.2333333332333334 0.3333333333333335 0.4333333334333332 0.1363505761895361 0.1678160938104636 0.6958333300000002 0.6706214835492957 0.06624601576866271 0.2631325006820415 0.2333333332333335 0.3333333333333334 0.4333333334333331 0.1363505761895361 0.1678160938104637 0.69583333 0.6706214835492956 0.06624601576866265 0.2631325006820418 0.2333333332333336 0.333333333333333 0.4333333334333334 0.1363505761895363 0.1678160938104637 0.6958333300000001 0.6706214835492956 0.06624601576866268 0.2631325006820416 0.2333333332333333 0.3333333333333334 0.4333333334333335 0.1363505761895364 0.1678160938104639 0.6958333299999997 0.6706214835492958 0.06624601576866264 0.2631325006820416 0.2333333332333335 0.3333333333333329 0.4333333334333337 0.1363505761895362 0.1678160938104638 0.6958333299999999 0.6706214835492957 0.06624601576866281 0.2631325006820415 0.2333333332333336 0.3333333333333337 0.4333333334333326 0.1363505761895362 0.1678160938104637 0.6958333300000001 0.6706214835492957 0.06624601576866267 0.2631325006820415 0.2333333332333332 0.3333333333333334 0.4333333334333333 0.1363505761895363 0.1678160938104639 0.6958333299999998 0.6706214835492958 0.06624601576866265 0.2631325006820416 0.2333333332333331 0.3333333333333337 0.4333333334333332 0.1363505761895361 0.1678160938104639 0.6958333299999999 0.6706214835492956 0.06624601576866267 0.2631325006820418 0.2333333332333337 0.3333333333333333 0.4333333334333331 0.1363505761895362 0.1678160938104639 0.69583333 0.6706214835492956 0.06624601576866276 0.2631325006820416 0.2333333332333336 0.3333333333333328 0.4333333334333337 0.1363505761895362 0.1678160938104638 0.6958333299999999 0.6706214835492957 0.06624601576866269 0.2631325006820415 0.2333333332333331 0.333333333333333 0.433333333433334 0.1363505761895362 0.1678160938104639 0.6958333299999998 0.6706214835492962 0.06624601576866257 0.2631325006820412 0.2333333332333335 0.3333333333333329 0.4333333334333337 0.1363505761895363 0.1678160938104637 0.69583333 0.670621483549296 0.06624601576866265 0.2631325006820415 0.2333333332333336 0.3333333333333331 0.4333333334333332 0.1363505761895364 0.1678160938104632 0.6958333300000004 0.670621483549296 0.06624601576866272 0.2631325006820415 0.2333333332333332 0.333333333333334 0.4333333334333327 0.1363505761895361 0.1678160938104637 0.6958333300000001 0.6706214835492954 0.0662460157686626 0.2631325006820421 0.233333333233334 0.3333333333333327 0.4333333334333332 0.1363505761895361 0.1678160938104642 0.6958333299999996 0.6706214835492956 0.06624601576866269 0.2631325006820417 0.2333333332333329 0.3333333333333331 0.4333333334333341 0.1363505761895365 0.1678160938104641 0.6958333299999994</probabilities>
		</cpt>
	</nodes>
	<cases>
		<case name="Case0001">
			<evidence node="Building_Age" state="High" />
			<evidence node="Nearest_Tree_Proximity" state="Low" />
		</case>
		<case name="Case0002">
			<evidence node="Building_Age" state="High" />
			<evidence node="Nearest_Tree_Proximity" state="Low" />
		</case>
		<case name="Case0003">
			<evidence node="Building_Age" state="High" />
			<evidence node="Nearest_Tree_Proximity" state="Low" />
		</case>
		<case name="Case0004">
			<evidence node="Building_Age" state="High" />
			<evidence node="Nearest_Tree_Proximity" state="Low" />
		</case>
		<case name="Case0005">
			<evidence node="Building_Age" state="High" />
			<evidence node="Nearest_Tree_Proximity" state="Low" />
		</case>
		<case name="Case0006">
			<evidence node="Building_Age" state="High" />
			<evidence node="Nearest_Tree_Proximity" state="Low" />
		</case>
		<case name="Case0007">
			<evidence node="Building_Age" state="High" />
			<evidence node="Nearest_Tree_Proximity" state="Low" />
		</case>
		<case name="Case0008">
			<evidence node="Building_Age" state="High" />
			<evidence node="Nearest_Tree_Proximity" state="Low" />
		</case>
		<case name="Case0009">
			<evidence node="Building_Age" state="High" />
			<evidence node="Nearest_Tree_Proximity" state="Low" />
		</case>
		<case name="Case0010">
			<evidence node="Building_Age" state="High" />
			<evidence node="Nearest_Tree_Proximity" state="Low" />
		</case>
		<case name="Case0011">
			<evidence node="Building_Age" state="High" />
			<evidence node="Nearest_Tree_Proximity" state="Low" />
		</case>
		<case name="Case0012">
			<evidence node="Building_Age" state="High" />
			<evidence node="Nearest_Tree_Proximity" state="Low" />
		</case>
		<case name="Case0013">
			<evidence node="Building_Age" state="High" />
			<evidence node="Nearest_Tree_Proximity" state="Low" />
		</case>
		<case name="Case0014">
			<evidence node="Building_Age" state="High" />
			<evidence node="Nearest_Tree_Proximity" state="Low" />
		</case>
		<case name="Case0015">
			<evidence node="Building_Age" state="Low" />
			<evidence node="Nearest_Tree_Proximity" state="Low" />
		</case>
		<case name="Case0016">
			<evidence node="Building_Age" state="High" />
			<evidence node="Nearest_Tree_Proximity" state="High" />
		</case>
		<case name="Case0017">
			<evidence node="Building_Age" state="High" />
			<evidence node="Nearest_Tree_Proximity" state="Low" />
		</case>
		<case name="Case0018">
			<evidence node="Building_Age" state="High" />
			<evidence node="Nearest_Tree_Proximity" state="Low" />
		</case>
		<case name="Case0019">
			<evidence node="Building_Age" state="High" />
			<evidence node="Nearest_Tree_Proximity" state="Low" />
		</case>
		<case name="Case0020">
			<evidence node="Building_Age" state="High" />
			<evidence node="Nearest_Tree_Proximity" state="Low" />
		</case>
		<case name="Case0021">
			<evidence node="Building_Age" state="High" />
			<evidence node="Nearest_Tree_Proximity" state="Low" />
		</case>
		<case name="Case0022">
			<evidence node="Building_Age" state="High" />
			<evidence node="Nearest_Tree_Proximity" state="Low" />
		</case>
		<case name="Case0023">
			<evidence node="Building_Age" state="High" />
			<evidence node="Nearest_Tree_Proximity" state="Low" />
		</case>
		<case name="Case0024">
			<evidence node="Building_Age" state="High" />
			<evidence node="Nearest_Tree_Proximity" state="Low" />
		</case>
		<case name="Case0025">
			<evidence node="Building_Age" state="High" />
			<evidence node="Nearest_Tree_Proximity" state="Low" />
		</case>
		<case name="Case0026">
			<evidence node="Building_Age" state="High" />
			<evidence node="Nearest_Tree_Proximity" state="Low" />
		</case>
		<case name="Case0027">
			<evidence node="Building_Age" state="High" />
			<evidence node="Nearest_Tree_Proximity" state="Low" />
		</case>
		<case name="Case0028">
			<evidence node="Building_Age" state="High" />
			<evidence node="Nearest_Tree_Proximity" state="Low" />
		</case>
		<case name="Case0029">
			<evidence node="Building_Age" state="High" />
			<evidence node="Nearest_Tree_Proximity" state="Low" />
		</case>
		<case name="Case0030">
			<evidence node="Building_Age" state="High" />
			<evidence node="Nearest_Tree_Proximity" state="Low" />
		</case>
		<case name="Case0031">
			<evidence node="Building_Age" state="High" />
			<evidence node="Nearest_Tree_Proximity" state="Low" />
		</case>
		<case name="Case0032">
			<evidence node="Building_Age" state="High" />
			<evidence node="Nearest_Tree_Proximity" state="Low" />
		</case>
		<case name="Case0033">
			<evidence node="Building_Age" state="High" />
			<evidence node="Nearest_Tree_Proximity" state="Low" />
		</case>
		<case name="Case0034">
			<evidence node="Building_Age" state="High" />
			<evidence node="Nearest_Tree_Proximity" state="Low" />
		</case>
		<case name="Case0035">
			<evidence node="Building_Age" state="High" />
			<evidence node="Nearest_Tree_Proximity" state="Low" />
		</case>
		<case name="Case0036">
			<evidence node="Building_Age" state="High" />
			<evidence node="Nearest_Tree_Proximity" state="Low" />
		</case>
		<case name="Case0037">
			<evidence node="Building_Age" state="High" />
			<evidence node="Nearest_Tree_Proximity" state="Low" />
		</case>
		<case name="Case0038">
			<evidence node="Building_Age" state="High" />
			<evidence node="Nearest_Tree_Proximity" state="Low" />
		</case>
		<case name="Case0039">
			<evidence node="Building_Age" state="High" />
			<evidence node="Nearest_Tree_Proximity" state="Low" />
		</case>
		<case name="Case0040">
			<evidence node="Building_Age" state="High" />
			<evidence node="Nearest_Tree_Proximity" state="Low" />
		</case>
		<case name="Case0041">
			<evidence node="Building_Age" state="High" />
			<evidence node="Nearest_Tree_Proximity" state="Low" />
		</case>
		<case name="Case0042">
			<evidence node="Building_Age" state="High" />
			<evidence node="Nearest_Tree_Proximity" state="Low" />
		</case>
	</cases>
	<extensions>
		<genie version="1.0" app="GeNIe 4.1.3724.0 ACADEMIC" name="Network2">
			<node id="Rapidity">
				<name>Rapidity</name>
				<interior color="faf59e" />
				<outline color="000080" />
				<font color="000000" name="Arial" size="8" />
				<position>253 143 342 186</position>
				<barchart active="true" width="128" height="72" />
			</node>
			<node id="Redundancy">
				<name>Redundancy</name>
				<interior color="fac074" />
				<outline color="000080" />
				<font color="000000" name="Arial" size="8" />
				<position>470 153 547 198</position>
				<barchart active="true" width="128" height="72" />
			</node>
			<node id="Robustness">
				<name>Robustness</name>
				<interior color="d7f0a8" />
				<outline color="000080" />
				<font color="000000" name="Arial" size="8" />
				<position>760 167 831 211</position>
				<barchart active="true" width="128" height="72" />
			</node>
			<node id="Resourcefulness">
				<name>Resourcefulness</name>
				<interior color="339966" />
				<outline color="000080" />
				<font color="000000" name="Arial" size="8" />
				<position>915 149 1022 197</position>
				<barchart active="true" width="128" height="64" />
			</node>
			<node id="Insurance_Cover">
				<name>Insurance Cover</name>
				<interior color="e5f6f7" />
				<outline color="000080" />
				<font color="000000" name="Arial" size="8" />
				<position>210 246 301 302</position>
				<barchart active="true" width="128" height="64" />
			</node>
			<node id="Rebuild_Cost">
				<name>Rebuild Cost</name>
				<interior color="e5f6f7" />
				<outline color="000080" />
				<font color="000000" name="Arial" size="8" />
				<position>376 257 449 302</position>
				<barchart active="true" width="128" height="64" />
			</node>
			<node id="Building_Height">
				<name>Building Height</name>
				<interior color="e5f6f7" />
				<outline color="000080" />
				<font color="000000" name="Arial" size="8" />
				<position>601 255 698 289</position>
				<barchart active="true" width="128" height="64" />
			</node>
			<node id="Nearest_Tree_Proximity">
				<name>Nearest Tree Proximity</name>
				<interior color="e5f6f7" />
				<outline color="000080" />
				<font color="000000" name="Arial" size="8" />
				<position>350 379 438 411</position>
				<barchart active="true" width="128" height="64" />
			</node>
			<node id="Proximity_to_Nearest_Water_Culvert">
				<name>Proximity to Nearest Water Culvert</name>
				<interior color="e5f6f7" />
				<outline color="000080" />
				<font color="000000" name="Arial" size="8" />
				<position>951 266 1031 316</position>
				<barchart active="true" width="128" height="64" />
			</node>
			<node id="Building_Age">
				<name>Building Age</name>
				<interior color="e5f6f7" />
				<outline color="000080" />
				<font color="000000" name="Arial" size="8" />
				<position>662 416 733 460</position>
				<barchart active="true" width="128" height="64" />
			</node>
			<node id="Built_Assets_Flood_Resilience">
				<name>Built Assets Flood Resilience</name>
				<interior color="ff9900" />
				<outline color="000080" />
				<font color="000000" name="Arial" size="8" />
				<position>554 29 742 90</position>
				<barchart active="true" width="128" height="72" />
			</node>
			<node id="Value_of_Built_Asset">
				<name>Value of Built Asset</name>
				<interior color="e5f6f7" />
				<outline color="000080" />
				<font color="000000" name="Arial" size="8" />
				<position>803 313 851 343</position>
				<barchart active="true" width="128" height="64" />
			</node>
			<node id="Household_Income">
				<name>Household Income</name>
				<interior color="e5f6f7" />
				<outline color="000080" />
				<font color="000000" name="Arial" size="8" />
				<position>523 333 571 363</position>
				<barchart active="true" width="128" height="64" />
			</node>
		</genie>
	</extensions>
</smile>
